21 300
r -0.3353595 0.21294637 -0.030379938 0.14995897 -0.069629975 0.14545791 -0.14323775 -0.20335977 -0.08000247 0.056670617 -0.16987865 -0.12504503 -0.24427843 0.10046726 -0.18407428 0.17178217 0.07667329 0.23752518 -0.07228295 0.09782705 -0.36793935 0.055358376 0.02490814 -0.0038618858 -0.030111482 0.07464975 -0.23158385 0.057597585 0.037402682 -0.032461654 0.025417078 -0.114419535 -0.13974737 -0.231743 -0.05184145 0.12161253 -0.1810662 0.03891347 -0.1618382 -0.09399113 0.004233468 -0.12525432 0.1010314 0.0899146 0.019025205 0.14443973 -0.04098968 -0.1850092 -0.038465075 0.26314965 -0.21065688 0.4434253 -0.08227379 0.08287808 0.10509969 0.11695577 -0.24150312 -0.18738216 0.013628163 -0.16266161 -0.20986012 0.12086143 -0.16732365 -0.18534112 -0.117293306 -0.14403135 0.035826057 0.13221945 -0.21420115 0.050738193 0.10683078 -0.18466678 -0.06905306 -0.06660859 -0.058379896 0.066030286 0.19365153 -0.061955456 0.18683928 -0.07950746 -0.18213026 0.0655796 -0.16157112 -0.15049271 0.32229164 0.071799554 -0.11145098 0.13572602 0.20427102 0.09548086 -0.0569431 -0.036890306 -0.06275856 -0.092673965 0.10406919 0.23286742 -0.15667173 0.10769739 0.33956856 -0.12946297 -0.18585518 0.14960396 0.0031941454 0.056765527 -0.04689824 0.06788174 -0.11376184 0.13858788 0.12258871 0.22568895 -0.21773957 -0.15103354 0.02695206 -0.039722998 -0.016588448 0.21642628 0.17079821 -0.13600288 -0.019374628 -0.28323922 0.26359126 0.14140566 -0.16431251 0.025749523 0.3885188 -0.099450216 -0.18346444 -0.039009195 0.2729844 0.04752577 0.1445461 0.0553676 -0.09171202 0.03281568 -0.2469112 0.14004393 0.05877667 0.013678859 0.31008142 0.16775352 0.40239924 -0.15451102 -0.04457494 -0.14657573 -0.18610255 -0.12630141 0.18529029 0.22374402 -0.027098302 0.054477725 -0.10828006 -0.2071739 -0.14859943 -0.098054774 -0.15329787 -0.40665624 -0.08507343 0.19490774 -0.01931757 0.032143824 0.023194512 0.13965923 0.027512204 -0.13036646 0.054916978 0.032930017 0.1713418 0.10669512 -0.10686261 0.06858149 -0.030361105 0.049862355 -0.15625148 -0.058319964 0.018676298 0.18753095 0.18357302 -0.26207957 0.04011494 -0.04833358 0.11651398 0.14778346 0.042905945 -0.12054456 -0.023082744 0.1737329 0.024310114 0.05441351 0.019792952 0.1397768 0.08003292 -0.16213623 -0.27697882 -0.15919669 0.1408079 0.042897534 -0.12459987 0.13052037 -0.051198203 -0.13226542 -0.20730197 0.020510206 -0.27291793 -0.11529056 -0.018705519 -0.105445184 -0.03642696 0.2395898 -0.07002237 0.26811555 0.11197827 0.104209885 -0.18823387 0.014505849 0.00583819 0.20599875 0.10491432 -0.0071060434 -0.22106902 -0.054710094 -0.08687612 -0.06626497 0.23557308 0.003946284 -0.053838696 0.04205965 0.10793059 0.005288576 0.010211273 -0.15146953 0.072988175 0.06042452 -0.031787306 -0.11270129 -0.034948304 0.06823171 0.1333924 0.015184744 0.15170455 0.06695164 -0.15930052 0.07409334 0.29806945 -0.022361606 0.089472115 0.20909384 -0.1518043 0.3061972 -0.020568138 -0.18427299 0.05119433 -0.0016228666 0.11776012 0.019695193 -0.08301114 -0.06930963 -0.19919412 -0.06081655 0.23589309 -0.26334268 -0.077397004 -0.003321878 0.11728471 0.10980804 -0.14903556 -0.11804518 0.09630293 -0.06704112 0.033251528 0.036797408 -0.22014539 -0.013893206 -0.01704324 0.015527523 0.07185041 -0.07411398 -0.28390586 -0.12434364 -0.18569353 0.028834354 -0.22358339 0.18018182 0.017731901 0.039866433 0.02898582 0.17330483 0.048886675 -0.1077075 -0.039512124 -0.19369906 0.043913085 0.03231653 -0.18810685 0.113510154 -0.047310207 -0.24531998 -0.095815696 -0.10457058 -0.13714404 0.31914106
t -0.36631474 0.21668492 -0.2908288 0.170023 -0.22980821 -0.033457477 -0.019866997 -0.13590129 0.13973224 -0.042642247 -0.065831736 -0.09407798 -0.2819323 -0.06337286 -0.1443898 0.17865866 0.016533077 0.38680536 -0.0051962077 -0.12823902 -0.33153903 -0.1159751 0.27918485 -0.068975374 0.009403444 -0.070844434 -0.41221243 0.031893183 -0.24374428 -0.005533035 0.12034914 0.124628134 -0.005124993 -0.009904844 -0.12171104 0.21410513 -0.52059466 0.16579868 0.13855661 0.1387835 -0.08834858 -0.15885821 0.18894008 -0.040122796 0.009165701 -0.031219158 0.07043712 -0.07817217 -0.14181489 0.24764304 -0.17072625 0.27420223 -0.15624724 0.6491655 0.2999265 -0.07278115 0.03986953 -0.17139688 -0.16638252 -0.14664954 -0.17497005 0.052074168 -0.07616191 -0.10642242 -0.007993683 -0.30393413 -0.24279077 0.03451055 0.0013933891 0.11505853 0.056747712 -0.082034454 -0.025622848 -0.08500432 -0.19542904 -0.0458322 0.27909085 0.13058005 -0.022235248 -0.12276091 -0.30704767 0.018231202 -0.3313749 0.0938906 0.14900649 0.099137604 0.10195312 0.28681204 -0.17825939 -0.1355384 -0.09669288 0.23829271 -0.04872485 -0.45887232 0.0703944 0.08342913 -0.32860675 0.07512535 0.42642975 0.110891305 -0.23565535 -0.15776715 -0.18429777 0.032496925 -0.07257294 0.24495967 -0.030891743 0.053837623 -0.17034674 0.062019937 -0.25467193 -0.31891072 -0.032448173 0.055282872 0.25044802 0.28291532 0.05467503 -0.15292367 -0.117081866 0.14569023 0.035550907 0.25345632 0.047428247 0.15295143 0.09657599 -0.33130807 -0.17504136 -0.28973353 -0.16802397 -0.099792324 -0.22464643 -0.01267856 0.007175206 -0.15769663 -0.27992684 0.00979828 -0.08599451 0.13233362 0.38643685 0.21934313 0.20881855 -0.17367794 0.28574258 0.08376282 -0.08358494 0.02308599 -0.023050215 0.12624551 -0.046813328 -0.07168371 0.014150438 -0.56826717 -0.09019417 -0.20794207 -0.039897766 -0.03437554 0.01799167 0.35918385 -0.18602614 -0.04284515 0.062755056 0.19365878 -0.07287002 0.01966909 0.026848301 -0.07533608 0.23654576 0.2468003 -0.05641243 0.26825657 -0.23859207 0.1337941 -0.08681679 -0.04182793 0.08674948 0.016723119 0.21928795 -0.19369471 -0.20652317 -0.20631209 -0.06854701 0.16675751 0.08571477 0.068370394 0.17811303 0.037507027 -0.07058449 0.207113 -0.16021828 0.24385767 0.27831748 0.024860652 -0.2979166 0.0019609889 0.19027461 -0.22183697 -0.031215757 -0.039733943 0.075684205 0.019948948 -0.11259473 -0.04274582 -0.37209114 -0.16265415 0.22848836 -0.0663507 -0.020347603 0.07903298 -0.007855705 0.13401699 0.14438716 0.27938095 -0.17422175 -0.15325396 -0.26928326 -0.11828875 0.22563677 -0.20629741 -0.17277658 0.11368782 -0.21919547 0.2735406 -0.010136091 0.095456846 0.059557445 -0.16720538 0.26446742 0.31584162 -0.1685596 -0.15031382 0.0503023 -0.19874728 -0.23642527 0.01951584 0.063395716 0.0025056982 -0.13255496 0.10284774 0.08555498 0.1845849 0.18928842 -0.055034112 0.4535229 -0.06142776 0.09558169 0.29520994 -0.17597829 0.033027153 0.1321014 -0.20621604 0.4030577 -0.10820373 0.15844928 0.019514726 0.023125987 -0.20442669 0.058065295 0.1887037 -0.09625917 0.050292354 0.1843597 -0.0054535624 0.075451136 -0.046344243 0.011383271 -0.11309771 -0.05477707 -0.0058058277 -0.010073288 -0.17422517 0.024926445 0.04067145 0.34702483 0.024517516 0.24674068 -0.00093084195 -0.09183361 -0.13339363 -0.11581113 -0.015336916 -0.28681812 0.29388267 0.040784597 0.15181501 -0.000674614 0.099860966 -0.17680018 -0.27222434 -0.06362543 0.021987686 -0.09291652 0.029418955 -0.008701821 0.15236603 0.016789678 -0.24529365 -0.06705173 -0.16366349 0.018789148 0.117232755
o -0.19045842 0.100478694 0.038183346 0.12612301 0.13630155 -0.049636528 -0.11231998 0.04927668 -0.18614183 0.10960649 -0.11017473 -0.026353741 -0.3489476 0.071481474 -0.13880025 0.099297844 0.11693291 0.14890176 0.06914062 -0.10366926 -0.4611874 0.004278439 0.20287733 0.23842125 -0.14585973 0.08541842 -0.3610408 0.023518145 -0.038541444 -0.08211498 -0.007883619 0.08832635 0.043795653 -0.2476856 -0.039299857 0.14459524 -0.097829804 0.10659761 -0.077503875 0.14643696 -0.07995214 -0.0419544 0.061361652 0.20072165 0.030164456 -0.0061886203 -0.14250994 -0.23443696 -0.20519263 0.03981724 -0.3536769 0.26087618 0.023036113 0.23109831 -0.07351973 0.14711396 -0.17195858 0.037325185 -0.041018248 -0.10059916 -0.21193044 -0.12504563 -0.20522465 -0.012314056 0.10759561 -0.1751269 -0.093853824 0.25053343 -0.24139349 0.054797355 0.12168076 0.009645999 0.07385664 -0.07300925 -0.0139769 0.014316715 0.14047503 0.014539654 0.04552251 -0.11115657 0.028818104 0.0034590515 -0.111757815 -0.07237211 0.073471196 0.034415968 0.084814 0.079859614 0.0041057575 0.13711973 0.10231489 0.106947064 -0.018529952 -0.14222783 0.04101993 0.0039362693 0.01571517 0.25842825 0.39736438 0.019552005 -0.1647336 0.042870242 0.031935215 -0.1822597 -0.033673733 0.11023226 -0.2662189 0.016130405 -0.019858312 -0.07830835 -0.26136565 -0.19616814 0.02497941 -0.10404293 0.052210815 0.13107023 0.075614244 0.1000679 -0.21507244 -0.22431561 0.03890258 -0.05195657 -0.027940182 -0.0305685 0.16407906 -0.15312018 -0.1306255 -0.020944417 0.12008749 0.20129053 -0.14063957 0.097413234 -0.15847576 -0.09475861 -0.11083119 0.057650745 -0.0535432 0.08096402 0.40415493 0.15637025 0.2287302 -0.1526647 -0.07503291 0.03833988 -0.07067751 -0.15142956 -0.0948023 0.2182785 -0.12678555 0.17374094 0.10367634 -0.4461353 0.14656077 0.019161154 -0.21368308 -0.14066577 0.06759259 0.26026204 0.04657362 -0.24058299 0.07762282 -0.07448649 -0.10328284 -0.024364945 -0.18328553 -0.1958991 0.21373212 -0.027921276 -0.06886273 0.13664702 -0.1116692 -0.068647906 0.0026963374 -0.030302867 -0.08101552 0.3703199 0.14071204 -0.1421489 0.17527337 -0.14014043 0.18810077 -0.012795436 0.115133576 0.12604462 -0.058760673 0.026761534 0.05178372 -0.06725923 0.01423978 0.020823928 0.053986132 -0.043952398 -0.21323086 0.022767533 0.08095794 0.071752 -0.009174643 0.062457208 0.06647576 0.11223207 -0.15650463 0.0487643 -0.3990311 -0.14780544 0.22853258 0.05477057 0.112396024 0.08164781 -0.034096956 0.16298681 0.121254966 -0.070161805 -0.37847102 0.052136436 -0.040714554 0.06935187 0.14678118 -0.15271918 -0.23149732 0.19320211 -0.10967397 0.18884009 -0.022879396 -0.097635284 0.08561855 0.033423476 0.035465725 0.06648494 0.019215798 -0.24669732 0.04930076 -0.09967849 -0.21687119 0.13788834 0.031014467 -0.05270485 0.16669299 0.0071278955 0.087096214 0.08622425 0.13851745 0.2587102 0.34634948 -0.113712735 -0.042766444 0.14728604 -0.19770744 0.26710457 0.049251348 -0.14233741 -0.25099894 0.16403042 0.17709593 0.12319264 -0.04516819 -0.2528974 -0.044953886 -0.13455182 -0.013851782 -0.13930103 0.20707598 -0.03917919 0.16036084 -0.02478398 -0.2192559 -0.02266211 -0.04063292 0.06413995 -0.013938552 -0.08341031 -0.2714958 0.03738104 0.09988001 0.028175635 0.22049388 -0.05207854 -0.30687615 -0.24373645 -0.23613623 0.21450113 -0.15563725 0.12611434 0.1024975 0.00493769 0.07372084 0.093987025 -0.03776027 0.062673144 -0.11746902 0.08265113 0.16656873 0.09528116 -0.05779383 0.16274801 -0.046163402 -0.1194327 -0.2554245 0.03413449 -0.14855771 0.1920655
e -0.10606212 0.17833142 -0.018383415 0.19860655 0.06877661 0.13470273 -0.17219935 0.109112196 -0.08006764 -0.002502655 0.0401862 -0.15617338 -0.19105291 -0.03348596 -0.19277202 0.15952519 0.37597874 0.06273669 0.12729216 0.27904406 -0.30704883 -0.17927364 0.09024552 0.17601253 -0.23685502 0.003234794 -0.07952017 -0.029397681 0.02740526 -0.3270756 -0.19930518 -0.0045799282 -0.22866365 0.061871972 -0.0017533711 -0.053863756 -0.36280268 -0.15261881 -0.01752217 0.12445543 -0.10113203 0.06163567 -0.18404795 0.00862495 0.12489836 -0.16873752 -0.21277991 -0.23193908 -0.35220534 0.061591163 -0.16452076 0.3205084 -0.049466055 0.062344585 0.18323939 0.60027283 -0.43813464 -0.32711393 0.22350064 -0.37603378 0.003182269 -0.3825941 -0.3520235 0.02135665 -0.30695176 -0.08107366 -0.35638863 0.204356 -0.15018281 0.12413434 0.03557596 0.034331247 0.23105767 0.24906789 0.16481224 -0.12713721 0.22118858 0.12048028 0.015747346 -0.16471113 -0.15337612 -0.09301429 0.0069823703 -0.07877881 0.14493269 0.071507186 0.1598707 0.12505274 0.07676532 0.1745393 0.1291246 -0.21309133 -0.20614819 -0.23347335 0.010136902 0.16094077 -0.023800574 0.3157858 0.3598521 -0.029747915 0.035494726 -0.004118322 -0.26493448 0.1551919 -0.0111720245 0.2739603 -0.18289222 -0.012394744 0.3499665 -0.028120883 0.04920506 -0.4270984 -0.11246952 0.14730933 -0.10063259 0.28508496 -0.091596104 -0.026188836 -0.011890403 0.18639985 0.094163164 0.12273409 -0.07598278 0.14728546 0.11955478 -0.38026643 -0.2762455 -0.09235259 -0.11785095 0.39707828 0.03868888 -0.083320275 -0.2148626 -0.14608951 -0.19383417 0.28670457 0.06341441 0.045797635 0.22776668 0.07238813 0.25672382 -0.081583105 0.0044890502 -0.06733675 -0.037494555 -0.2983067 -0.16939408 0.19531693 -0.069389395 -0.09727415 0.15175243 -0.27620763 -0.072503336 0.061599486 0.0016148534 -0.26465335 0.3551076 0.051142856 -0.17825511 -0.006108555 -0.06596124 -0.018818451 -0.13414934 -0.00822399 -0.020934833 0.10631981 0.24767393 -0.19332302 -0.16530544 0.006373427 -0.125735 -0.36407235 -0.24126656 -0.027567154 0.029902073 0.3308559 0.48645794 -0.48545846 -0.041487414 -0.1851224 -0.12563586 -0.19888158 -0.13800687 -0.27995786 -0.061496325 -0.065625526 -0.34152648 0.25766912 -0.25744542 0.03557438 0.2780235 -0.096081406 -0.40752319 0.041072678 0.2650906 0.15203151 -0.016782623 -0.095022604 0.05062452 -0.03021754 -0.0575098 -0.060107596 -0.06469771 -0.16280654 0.22633131 -0.30612338 0.12106716 0.1322325 -0.14076461 0.1784973 0.39214787 0.0868724 -0.13409492 -0.07465561 -0.039898887 0.2531002 0.42747325 0.010541687 -0.2830984 -0.07764115 -0.11467003 0.03446711 -0.1644127 -0.1510963 -0.18878192 -0.35528126 0.09512573 -0.25090894 0.25559646 -0.38655424 -0.20226635 -0.15363404 0.0012583296 0.096243136 -0.023415817 -0.020227483 0.043569088 0.3515836 -0.022326304 0.15042756 0.22266431 -0.102706484 0.3708153 -0.053803835 -0.06394374 -0.3450599 -0.042125672 -0.001574307 0.22494073 -0.002156193 -0.13728334 -0.07610939 -0.046068322 0.23810971 -0.15016131 -0.27155918 -0.28334686 0.19823699 -0.07544659 -0.25482187 0.08940873 0.060087033 0.25433487 -0.082405806 -0.03034157 -0.116624035 -0.14533336 -0.04007519 -0.031388815 0.13094962 0.13027608 -0.10797899 -0.2587475 -0.006043474 0.073083095 -0.039793786 0.0041569886 -0.09213571 0.045375936 -0.0381703 -0.1774896 -0.07341667 -0.060368963 -0.041328203 0.03417909 0.00323902 -0.21668802 0.027353311 -0.16682552 0.111273535 0.124112315 -0.30845144 -0.15469636 -0.03165655 0.09919454 0.042262815 0.086136244 0.054629043 -0.20979953 0.3043437
_ -0.03300442 0.044015773 0.2338576 0.18489818 -0.08421575 -0.056501705 0.043239646 -0.13195755 0.15395123 0.14367288 0.020002272 -0.18270826 0.12623042 -0.034170274 -0.12572074 0.11754857 0.027333286 0.06582295 0.06979492 -0.14965567 -0.298815 -0.05480827 0.028616358 -0.010065472 -0.083131276 -0.2701472 -0.3845828 0.00042891604 0.14203192 0.17010239 -0.05650614 0.0513787 -0.14594178 -0.118571326 0.0038931975 0.06987307 -0.07022407 0.04313635 -0.15570915 0.17271277 0.04751465 0.08116238 0.07716804 0.049352184 -0.098767236 0.14109115 -0.0029935546 0.14065118 0.0636018 0.14267416 -0.16119641 0.08470471 0.04993612 0.07645176 0.009242201 0.16426189 -0.17668416 -0.022591148 -0.16442339 0.029453363 0.017602112 0.15123568 -0.10052756 -0.07428625 0.12998874 -0.022267465 0.12146897 0.15476689 -0.2229591 0.0010138754 0.062141877 0.106861226 -0.08682803 0.113023326 -0.113171995 0.11232405 0.104707785 0.07481903 0.07481976 0.116883814 0.006688221 -0.0790832 -0.062796324 0.076345 0.0033212695 -0.13188924 0.10052195 0.0070178905 -0.0065877545 -0.07647669 -0.022041308 0.16524516 -0.0730079 -0.15165822 0.1674964 -0.058008913 -0.034066774 0.03804628 -0.09121275 -0.0027763743 -0.08781343 -0.06036091 -0.000105447485 -0.017215472 -0.13164364 0.023003116 0.09984269 -0.0025254758 0.12976535 0.05795168 0.14226747 0.052211594 -0.0003703917 -0.015377384 0.12660255 0.09035722 0.044848587 0.08970481 0.090078115 0.06335731 -0.16876347 0.087635964 0.052852686 0.0066630463 0.19711517 -0.19966286 0.28784394 -0.090047345 0.09393587 0.09707109 0.026486626 -0.009320413 0.056860965 0.08716257 0.04316921 -0.009932035 -0.14614008 -0.0984591 -0.024687378 -0.1512266 0.25074482 -0.16921821 0.09516642 0.06431162 0.115523875 -0.2687372 0.013975483 -0.00014020599 -0.2351473 -0.04058824 -0.116922915 -0.130123 -0.08544979 -0.044317853 0.07745618 -0.044629227 -0.03794301 0.045055065 0.24565136 0.15658759 -0.019046219 0.06754806 0.18328455 0.09644315 0.028089168 0.03624189 0.019751344 -0.0694422 -0.007281289 0.11001941 -0.28087303 -0.034732886 -0.05359181 -0.018266976 -0.021553272 0.18784447 0.05242855 0.030408183 -0.112286955 -0.15656468 -0.1384061 0.10702926 -0.11587854 -0.046600122 0.026686246 0.08117623 -0.041185625 0.06103298 0.05008625 0.1546283 0.12502587 0.0006695695 0.11987357 -0.031731617 -0.21348573 0.09109878 -0.15121421 -0.13107114 -0.112160176 -0.2669287 -0.013504069 -0.036980346 -0.081028946 0.020172777 0.04450845 -0.080945864 0.02331487 -0.14438142 -0.14211823 -0.09980746 -0.09864788 0.07706945 0.072133966 0.14691737 -0.095229246 0.186274 0.13202614 0.13375197 -0.034061674 -0.08319103 -0.047952283 -0.04522426 0.09721294 -0.17860639 0.0023260652 -0.073825665 -0.086336456 0.23713891 -0.052037135 -0.15102506 -0.11749262 -0.049859375 0.12620081 0.24195789 0.028249612 -0.09486263 -0.047849856 -0.11459174 0.065334134 -0.17941344 0.16091278 0.027427608 0.081315085 0.012092175 0.032274913 -0.07786147 0.017798586 -0.04667585 0.21555695 -0.054284934 -0.10031359 -0.051134355 0.009782714 0.04960786 0.07386825 0.036910117 0.06831727 -0.09493459 0.0515483 -0.069885805 -0.037122563 0.08619267 -0.05040144 0.18420859 -0.0867365 0.050973263 -0.080960594 -0.115241595 -0.071134046 -0.038916647 0.054785356 0.24964292 0.033251867 -0.119509205 0.13633512 -0.15336302 -0.26089016 -0.18104012 -0.0059042736 -0.15962261 0.053143933 -0.063652374 0.085313454 0.0058332607 -0.02457113 -0.080444716 -0.036670897 0.15205017 0.0722403 0.0040778243 0.05171753 -0.048002105 -0.09523781 -0.06461243 0.019369218 -0.024642147 0.0073598935 0.0100540975 0.14790952 0.16878487
i -0.24911204 -0.003518347 0.09534864 0.25532392 -0.037724625 0.09759471 -0.07215229 -0.052585732 0.049325164 0.026271692 -0.03924388 -0.30843565 -0.28725672 -0.18690316 0.020039853 0.02137074 0.04347601 0.09607556 0.11585192 0.012048218 -0.24684699 0.124901675 0.2728881 0.11310799 -0.082238376 0.16413341 -0.4373332 -0.114161484 -0.03121193 -0.06785587 0.15198332 0.12718222 -0.07422117 0.021227906 -0.19632226 0.1701461 -0.27784774 0.18892702 -0.12997824 0.0088487575 0.011036724 -0.061101466 0.24797821 0.1489474 0.15193714 0.07217004 0.17153054 -0.25964785 -0.073405385 -0.09520565 -0.0028638141 0.11895377 0.14047748 0.3762883 -0.08655314 0.27352718 -0.121006474 0.107786566 -0.017471842 -0.12820771 -0.036660314 0.0095229065 -0.30449116 -0.0043388396 -0.09706696 -0.24175583 -0.120578684 0.06561721 -0.16158903 -0.07593953 0.07346557 0.052277077 -0.024992779 0.072672084 -0.21871537 -0.15589175 0.10511857 -0.02308002 0.09579021 0.04734519 -0.24036948 -0.014006307 -0.044189785 -0.15669222 0.011556126 0.20405027 0.046029698 0.26247522 -0.15383682 0.058737148 0.048930362 0.19301517 0.002759663 -0.032923046 0.024382487 0.24365391 -0.18592165 -0.014429911 0.33328962 0.09006168 -0.078578606 0.010888212 0.07220158 0.13771875 -0.04803604 0.24476652 -0.14433758 0.14309347 0.080856815 -0.16395815 -0.27144486 -0.30234176 0.0016933077 -0.009778167 0.26173642 0.044115726 -0.088225886 -0.24939579 0.020767294 -0.2799624 0.25856367 -0.014080362 -0.19521289 -0.06347817 0.10093157 -0.22106805 -0.33975774 0.109890126 0.24269122 0.06728046 -0.24221279 -0.1347064 -0.20057018 -0.015536007 -0.26342422 -0.053406544 -0.20731105 0.030165905 0.21239212 0.0030109314 0.16735823 -0.19875593 0.109385036 0.0473284 -0.060293615 -0.008219932 -0.16316788 0.03220124 -0.02781802 -0.03314762 0.10847459 -0.22024667 -0.1453105 0.06095639 -0.18343814 -0.21647319 0.0531466 0.17713355 -0.07017642 0.056150958 0.21432264 0.15862805 -0.1725302 0.17024201 -0.1337575 -0.23160224 0.24629147 0.18022744 -0.2782737 0.112568356 -0.3167035 -0.06615701 -0.006242333 -0.102275394 0.04846456 0.28834745 0.47077057 -0.3024656 0.24677885 -0.32952902 0.123133376 0.09019191 0.005872869 -0.03657993 0.06103333 0.1410331 -0.17771879 0.20674695 -0.06948591 -0.05519296 0.03209633 0.015184119 -0.31100532 -0.14184138 0.27070814 0.22870554 -0.13464853 0.09199334 -0.004241791 -0.35474414 -0.21828865 0.12702814 -0.085349046 -0.19266793 -0.06304293 -0.20581798 -0.0732161 0.041319266 -0.14671813 0.25907022 0.109238625 0.20934197 -0.30011296 -0.17664938 -0.22116481 -0.06743136 0.32424912 -0.12158798 -0.20882146 -0.0645854 -0.3354326 0.18596385 0.17298529 0.1307319 0.024734033 -0.2943807 -0.00263291 0.13081752 -0.16773191 -0.15645066 0.15321952 0.087855875 0.025903752 -0.03129701 0.20880581 0.075570665 0.046067253 0.21560593 0.16663164 0.113934964 0.18115276 0.07551275 0.16304149 -0.12873845 -0.26921013 -0.031340167 -0.23473676 0.19635731 0.007860822 -0.12109275 0.20305212 0.15859196 -0.08532884 0.19634278 0.08799883 -0.018629715 0.046066284 0.018780123 0.011245407 -0.14704417 0.16932905 -0.12612808 0.07642677 -0.0897257 -0.14331684 0.060231175 -0.14147884 -0.07900188 -0.031213526 -0.20526992 -0.1138069 -0.13962646 0.1311025 0.13459332 0.20093413 -0.057057466 -0.1728176 -0.22481376 -0.24204212 0.119608656 0.0021644894 0.14858271 0.17388892 0.11940519 -0.021487692 0.119295366 0.16114199 -0.2237267 -0.15768293 -0.025050933 0.08776282 0.22677617 -0.1247821 -0.031332556 0.032523442 -0.13161089 -0.18985197 0.02553055 -0.19230632 0.014910553
n -0.033384927 -0.01388899 -0.05030174 0.18981735 -0.18671146 0.08495179 0.054678913 0.037100498 -0.12671359 0.14877924 -0.0050018984 0.09191713 -0.24270114 -0.021141466 -0.15381119 0.08264894 0.12046556 0.13704386 -0.1542378 0.017631121 -0.1259233 0.08727461 0.1753343 -0.06665695 -0.26419207 0.15556465 -0.25888303 0.29368547 0.0038748416 0.15855697 0.059396185 0.0020659156 -0.0033717768 -0.2796292 -0.27501556 0.19882748 0.05645898 0.033714507 -0.08596111 0.052529972 -0.07562138 -0.22708392 0.065892525 0.19250001 -0.0063273236 0.04783951 -0.19994403 -0.23723778 -0.09760113 0.30349398 -0.31568438 0.24529691 -0.06594811 0.30729136 -0.13086294 0.058854178 -0.20092857 -0.023312515 -0.008441199 -0.14554513 -0.22285639 0.041690424 -0.10099898 -0.07072594 0.045429584 -0.09461979 -0.022828493 0.30377945 -0.062383953 0.08920868 0.15335041 -0.18531783 0.04774211 0.054010753 0.000980819 0.10863165 0.002937871 0.007537985 -0.089878 -0.12955165 -0.116177365 -0.17478238 0.06840988 0.047732517 0.21040425 0.11181834 -0.19258496 0.25475895 -0.02006194 -0.073824614 -0.13263178 0.107094094 0.11870865 -0.1900393 -0.0367522 0.119059 -0.0622408 0.13122457 0.24545288 -0.1514517 -0.04079757 0.051675424 -0.1689682 -0.034266435 -0.18059371 0.15590282 -0.06561114 -0.13132727 -0.1734405 0.0069546746 -0.25271016 0.06333104 0.138098 -0.16220787 0.055119917 0.17676349 0.30458397 0.14573224 -0.11563638 -0.1970241 0.018874375 0.03433496 0.019663898 -0.10710658 0.04694597 -0.15314625 -0.10166868 0.051513065 0.17949963 0.08389465 -0.083911695 -0.042834636 0.012606252 0.097667575 -0.15274015 0.0739556 0.04113047 -0.094502844 0.3105295 0.11890066 0.12470026 -0.1103995 0.023326527 -0.12911238 -0.08261822 -0.128174 -0.067257605 0.13818094 0.07484701 -0.015618605 0.14290696 -0.295131 0.07509989 -0.16748162 -0.2064371 -0.09053196 0.08762411 0.24555933 0.23522107 -0.051520262 -0.060629543 -0.040903307 0.038044807 -0.022844817 0.17168128 0.007750535 0.076406054 -0.07804695 0.017335106 0.1135538 -0.020255305 -0.06943266 -0.0683232 -0.12214971 -0.07382566 0.2548639 0.18706305 -0.16325603 -0.018289413 0.089349516 0.09745728 -0.01425129 0.10721645 -0.07917075 -0.027607335 0.0072272713 0.14074677 -0.10276783 0.10918442 0.108846165 0.0044958745 -0.051267948 -0.31203762 0.017140148 -0.0825735 -0.009958245 -0.13198361 -0.054283958 0.006924172 0.0022853098 -0.118688494 -0.12607628 -0.2281629 -0.08025559 -0.046510108 -0.019725762 -0.14997208 0.01871525 -0.0013106723 0.22378534 0.15146926 0.2359807 -0.09252358 0.216739 0.021579864 0.036507204 0.14754021 -0.0467094 -0.1123627 0.013038818 -0.11605802 0.15826096 0.032067098 -0.023979612 -0.033865795 0.15746917 -0.008276077 0.10230725 -0.0014253224 -0.035363484 0.055171404 0.012723549 -0.091177985 0.055717334 -0.0471108 -0.102914095 0.18547432 0.06963257 0.13353042 0.099621825 0.13135906 0.17982958 0.24474561 -0.14131953 0.036670774 0.10691774 -0.1677551 0.100116536 0.026901439 -0.08866104 -0.057416566 -0.023764985 0.031479698 0.10731174 0.06683883 -0.09879547 -0.030841747 0.0057030586 0.08744804 -0.0853595 0.097643346 -0.078082256 0.061706852 -0.14569147 -0.14601056 0.08790833 -0.015660452 0.1581025 -0.08816196 -0.041484136 -0.073443614 -0.03537885 -0.12567809 0.11132328 0.062003043 -0.20709549 -0.14836298 -0.14332485 -0.17851102 0.020019284 -0.045119785 0.18814531 0.024073806 0.027900035 -0.056294326 -0.08031525 -0.014697381 0.006239911 0.039297804 -0.015589725 0.13121714 0.014662749 0.05164216 0.08013047 -0.17862846 -0.21556188 -0.06301077 -0.042601068 -0.2596456 0.0068830885
b -0.21927273 0.06360866 0.114794716 0.22888282 -0.16896895 0.005461327 -0.24572697 -0.13551763 0.015880352 -0.09520643 -0.1161985 -0.110107005 -0.18215165 0.21739799 -0.1795066 0.030399716 0.0011471028 0.12726901 -0.028769761 0.10778718 -0.28143096 -0.13351037 0.0694645 0.005847378 0.13609244 0.057969123 -0.34878585 0.03768597 0.08847857 0.2504497 -0.05514811 -0.07501094 -0.08832075 0.012878157 -0.21760458 0.14336272 -0.14045739 0.13281251 -0.13626838 0.18497396 -0.03120809 0.04489383 0.20916925 0.04233514 -0.0404093 -0.049268305 0.116115496 -0.29034105 -0.097846374 -0.05567397 -0.20095484 0.34856808 -0.09234883 0.13610195 -0.04493207 0.17404893 0.037051525 -0.16178654 0.0045645596 -0.19364941 -0.07171519 -0.13262708 -0.19795609 -0.19857341 -0.11822822 -0.319631 -0.067013875 0.14093904 -0.07791005 -0.17611983 -0.0816781 -0.15191588 -0.12800801 0.050064582 0.0025190674 0.09576007 -0.058651276 0.037878364 -0.019982647 -0.07671824 -0.26248893 0.08590048 -0.014379016 0.10222681 0.19129427 0.04647978 0.12539281 0.3933531 0.20849061 0.17561206 0.13813978 0.08957745 -0.11423823 -0.05673172 0.22451518 0.17831182 0.0123409275 0.12689447 0.09231982 0.033226687 -0.09967875 -0.0030380522 -0.04302654 0.00140423 -0.12785663 0.063371114 -0.04789545 0.11074834 -0.026205746 0.07795629 -0.2206413 -0.1603252 -0.17072429 0.04066761 0.1563966 0.1949998 0.018987153 -0.1784041 0.044254277 -0.07749075 0.18099761 -0.053592294 -0.016047167 0.029339926 0.27685723 -0.12121271 0.10712237 0.11212065 0.05875068 0.13289915 -0.046477754 0.014730225 -0.023378065 0.008580667 -0.2378415 0.09199402 -0.13335408 -0.043772593 0.31736928 0.13849801 0.33894992 -0.06605294 0.11551026 -0.04213354 -0.19866252 -0.027708456 -0.1100984 0.24189715 -0.06519386 0.44219995 0.029845912 -0.28970596 -0.0710495 0.12903121 -0.16358802 -0.03350731 0.074706905 0.06364322 -0.08650988 -0.023388946 -0.03699578 0.330485 0.056132507 -0.004353494 -0.084927425 -0.13016616 0.12344934 0.08829044 -0.18636756 0.07017725 -0.12639742 -0.1437297 0.004398719 -0.24477305 -0.07625227 0.3040638 0.3417739 -0.27576032 0.008028375 -0.15716018 0.013390133 0.056889176 -0.07403152 -0.017351065 -0.035774674 0.21013415 0.006402471 -0.02118891 0.12036947 0.0043199016 0.19993396 -0.09639309 -0.3270513 -0.13495265 0.09722771 0.109276526 -0.14205185 -0.108555906 0.16190544 -0.19684438 -0.056007575 0.18314561 -0.35517523 -0.19013292 -0.060572542 -0.042413153 -0.19906434 0.13569874 0.10227033 0.27478907 0.042502794 0.07551026 -0.11563251 -0.13310486 -0.08112391 0.16479984 -0.024100821 0.13565493 -0.17670596 -0.086791456 -0.1945762 0.16122985 0.18791297 -0.121918745 0.17178793 0.06654809 0.20551087 -0.027877582 0.09356918 -0.090134084 0.005698013 -0.0020090349 0.04195923 0.08639812 -0.010536331 0.1191122 0.17306198 -0.039667226 0.23735964 0.026467262 0.08255785 0.28524247 0.3141478 -0.08908195 -0.0034907637 0.15392675 -0.22096531 0.30129975 -0.007787846 -0.032874946 0.26574495 0.039409455 0.004460166 -0.0041056345 -0.014565015 -0.07185268 -0.10678036 0.10815767 0.24411164 -0.1762217 -0.14242765 -0.11870648 -0.06550017 0.009844186 -0.26232007 0.06966314 0.022152746 -0.03868578 -0.0027132323 -0.28258333 0.037967354 -0.06543877 0.14001276 0.07351941 0.10716563 -0.0845758 -0.22674404 -0.031013157 0.0062854495 0.030470012 0.037157685 0.18235405 -0.07805547 0.10740433 0.0025934847 0.077043556 0.004102199 0.022277726 0.03186499 -0.014895332 0.074967645 0.108394876 -0.011105531 0.11341234 0.027626302 -0.12056666 -0.08672685 -0.022059646 -0.045496307 0.30072096
l -0.05069085 0.24490702 -0.05284386 -0.046012837 -0.07975964 0.12797761 -0.04215501 -0.07999224 -0.29315403 0.08154874 0.10337852 -0.12935531 -0.36067066 0.1425268 -0.12102482 0.2287802 0.15437207 0.096808374 -0.0036709094 -0.00642002 -0.24300389 -0.10854001 0.11827451 -0.0014748069 -0.1875684 0.24240074 -0.24021277 0.1900626 0.1453436 0.1377913 -0.014976996 -0.07608243 -0.035352755 -0.35014793 -0.25103933 -0.034044385 -0.07838849 0.22984318 -0.18772753 0.03934619 -0.24401465 -0.14087866 -0.059312355 0.26377174 0.0234737 -0.010436725 -0.0025811829 -0.1651313 -0.21376386 -0.028400198 -0.325956 0.31096232 -0.03971054 0.22261862 -0.057633046 -0.057804946 -0.33045942 0.13939926 -0.043544516 -0.17872657 -0.2735806 -0.117614634 -0.24579357 -0.16924897 0.09456167 -0.070361346 -0.054649826 0.107031226 0.043566793 0.22844881 -0.02301199 -0.17226835 0.13541357 -0.050824657 -0.22607456 0.18158126 0.17333575 0.014992146 0.03830439 -0.1664487 -0.1486724 -0.008042988 0.084448084 0.04584394 0.115032114 0.059926294 -0.16326642 0.17642213 0.097489655 0.17167147 -0.12756184 -0.03606379 -0.061737064 -0.16198438 0.01995299 0.06420192 -0.09086623 0.023483617 0.27094665 -0.15339431 -0.06933003 0.15194671 0.0045098136 -0.12897988 -0.14313878 0.13641742 -0.038765572 -0.013495211 0.0044862335 0.14925946 -0.06295558 -0.12449287 -0.1184238 -0.0490472 0.08888755 -0.0015145798 0.25300053 -0.070281394 -0.1501321 -0.11371398 0.21708114 0.10427705 0.10551447 -0.021347068 -0.018297277 -0.0033325562 0.012689777 -0.033068 0.2986343 0.15904205 0.02795447 -0.14688061 0.12083502 -0.016142394 -0.19489163 -0.018568993 -0.11204193 -0.05283989 0.2174865 0.13450477 0.15945736 -0.014995555 0.06224855 -0.06469137 -0.0487746 -0.18634078 -0.18227279 0.20087765 -0.09827047 -0.008197536 0.12887038 -0.4275477 -0.0031857383 0.0017763879 0.047129396 0.06638456 0.13228829 0.21600132 0.049357563 -0.060463075 -0.07782528 0.20105949 0.056881685 -0.117256805 0.081926055 -0.0058403215 0.16111809 0.13791883 -0.15319358 0.17958103 -0.04915651 -0.23166531 -0.09523636 -0.1990117 -0.09063502 0.088419236 0.13179491 -0.12720545 0.2299766 0.061691392 0.008588421 0.13910279 0.0906397 -0.10698576 -0.15892601 0.1821286 -0.06762174 -0.10835204 0.036778167 0.1507036 -0.08161746 0.022956377 -0.269379 -0.073201425 0.046413034 0.082038194 -0.118881725 0.049024202 0.028143948 -0.11898515 -0.19429827 0.018087855 -0.29052585 -0.20726466 0.14757706 -0.0008776193 -0.049795125 0.09946305 -0.01792211 0.074309774 0.21790345 -0.0620409 -0.09413261 -0.041014537 -0.13408157 0.026493879 0.040478136 -0.2074628 -0.051426172 -0.027333412 -0.0952665 0.049799543 0.09170538 -0.050419766 0.013498668 -0.027223533 0.1515523 0.035868045 -0.1567072 -0.102785334 0.05928525 0.0061767083 -0.16202848 0.06098991 -0.19118586 -0.027666032 0.15612532 0.0062307036 0.22468592 -0.06777622 -0.041790586 0.25956896 0.40698475 0.088162705 -0.028616378 0.15872997 -0.17874153 0.15243039 -0.06755709 -0.08107624 0.07912153 0.13445368 0.0750232 0.14424174 0.04574848 -0.029226525 -0.16313992 0.078614615 0.015060069 -0.023377692 0.095426776 -0.0032284316 0.10265566 -0.05191016 -0.117529966 -0.035945326 0.08444297 0.12833814 -0.115981564 0.0107401535 -0.081838064 0.030012337 0.063010335 0.13932823 -0.05047337 -0.12815186 -0.3225321 -0.1930935 -0.19522767 0.044245575 -0.020511044 0.19080806 0.1073635 -0.17605361 0.12527713 0.12736735 0.049215004 0.16972058 -0.0629374 0.098009855 0.07599667 0.027567394 -0.23129636 0.055567525 -0.038710184 -0.21214479 -0.15940194 -0.06180122 -0.20774141 0.13528807
c -0.22397837 0.04497662 0.02913739 0.19162758 -0.18755822 -0.032722503 -0.14926697 -0.16995911 -0.087546624 -0.14868003 -0.09914454 -0.14760691 -0.21075079 0.24483003 -0.20223968 0.057437733 0.031981405 0.3433431 -0.07298984 0.048556823 -0.17597829 -0.16085525 0.010793073 -0.2500196 -0.050045144 -0.014875941 -0.5107278 0.20967953 -0.13972785 -0.01234897 -0.018013662 0.009102752 -0.038244437 -0.28463367 -0.27875593 0.10363759 -0.47315657 0.1252442 -0.14222942 0.12643473 -0.05548349 0.078076266 0.0795752 0.07252547 -0.0906068 0.043946292 0.14690597 -0.10026242 -0.16828081 0.16767468 -0.14917614 0.26993194 -0.058027778 0.28030956 0.011355116 0.20264275 0.0174251 -0.25433353 -0.2449697 -0.23792265 -0.040378552 -0.1349041 -0.43320262 -0.23298761 -0.0024307766 -0.20234406 -0.06601867 0.20733613 -0.0016332569 -0.12731153 0.02369168 -0.3015883 -0.22595103 -0.29159486 -0.07424235 -0.02627296 0.111480035 0.07185096 0.08062997 -0.31588173 -0.22101836 -0.01240243 -0.010076214 0.074980624 0.15036984 -0.08462583 0.01373862 0.31453067 0.09966909 0.10752054 0.17853208 0.1591501 -0.046232894 0.04614073 0.17391926 0.049931504 -0.012527665 0.11143593 0.16458634 0.026927477 0.15145323 -0.0021783228 -0.0074666874 -0.113943756 -0.111644216 0.06742504 0.027485909 0.22319184 -0.014010908 0.19071718 -0.2626028 -0.08419304 -0.40220976 -0.0815597 0.010817544 0.21395978 -0.085233614 -0.18009423 0.120428674 0.07746399 0.2902686 -0.105905846 0.036407884 0.2894528 0.1422967 -0.17086317 0.06306 0.3733424 0.07097689 0.12320471 0.042933308 -0.07920719 -0.040021405 0.032863326 -0.28852054 0.036207695 -0.19660568 -0.09135105 0.39912817 0.0069272537 0.35892987 0.08605299 0.13285656 0.012542582 -0.26894534 -0.012046938 -0.13424462 0.28912735 -0.0032121993 0.2827659 0.039773464 -0.39046052 -0.28123704 0.23670545 0.08121856 0.05405561 0.12775499 0.13268971 -0.06127942 -0.014090949 0.0903353 0.3054254 0.18068627 -0.07780799 -0.08913285 -0.14674607 0.19861886 0.13809037 -0.10759888 0.0654544 -0.016610062 -0.39459163 -0.09156708 -0.2345343 -0.10188638 0.462338 0.35760626 -0.3710351 0.026059745 -0.08509102 -0.34646684 -0.083900265 0.19463347 -0.08709737 -0.17708136 0.25343168 -0.025361832 0.063364655 -0.03569698 0.00256928 0.01316676 -0.03709149 -0.27277192 0.08404164 0.14659671 0.16422701 -0.07349417 -0.07058304 0.3244999 -0.10219392 0.084399246 0.03244709 -0.35841236 -0.27537495 -0.045176663 -0.0070289182 -0.13359399 0.14731416 0.102975585 0.13868123 0.06195944 -0.094380684 0.10563236 0.16722892 -0.08553161 0.17679507 -0.06840628 0.25573334 0.05730311 -0.106910445 0.0052066147 0.26332724 0.36000302 -0.17030104 0.24188468 0.25219575 0.08060662 0.08238168 0.13766761 -0.1935884 -0.13449182 0.0041275406 -0.044165984 0.0055028168 -0.16793902 0.15609677 0.38648435 0.024645524 0.18450023 -0.080872945 0.15891379 0.4466564 0.2438988 0.09133166 -0.11047224 0.3005599 -0.1289527 0.22138064 -0.038031187 -0.1847917 0.36839885 -0.05865694 0.07051548 -0.21990094 0.10691831 -0.13199593 -0.11417936 0.021130828 0.06966754 -0.030203432 -0.19877279 -0.0015694797 0.09678797 0.18554604 -0.3335652 0.10567519 0.2599549 0.007974995 0.01415137 -0.2682072 -0.01269837 -0.0477951 0.19978979 -0.009748617 -0.19246934 -0.3049411 -0.27615753 -0.13520683 -0.08607249 0.27338144 -0.014512139 0.5047978 -0.11361122 0.07866103 0.05018674 0.2843027 0.06806383 -0.027701525 -0.05974398 -0.14381301 0.16787645 -0.0988553 -0.10576796 0.10161619 0.08310291 -0.25087366 -0.07890442 0.09363998 -0.05687017 0.24986719
d -0.10509869 0.26500952 0.0923377 0.15829653 -0.18450306 -0.01151917 -0.21212254 -0.21729518 -0.05439781 -0.042461686 -0.008647596 -0.2418072 -0.2276283 0.18207474 -0.20274535 0.036265675 0.32372224 0.43562835 -0.03574934 -0.10809117 -0.35596186 -0.124303795 0.13233645 -0.2040557 -0.00095360057 -0.28984734 -0.39616397 0.109252855 -0.21498173 0.10993921 -0.12755376 0.18872906 -0.15084279 -0.2628763 -0.25214577 0.052616335 -0.14513846 0.3647934 -0.17448674 0.1502834 0.17914003 0.13392861 -0.024867676 -0.047049496 0.088504784 -0.224785 0.07725548 -0.36713675 -0.13385332 0.037513908 -0.49781874 0.2886738 -0.1195555 0.16837509 -0.03207985 0.06764351 -0.02879817 -0.24317251 0.053344768 -0.20434396 -0.24561584 -0.10713119 -0.21691811 0.035794195 0.021846814 -0.48076966 -0.21512802 0.13716076 0.12316733 0.089249484 0.034661323 -0.11532776 -0.1584138 -0.2866163 -0.020468188 -0.11964415 0.04711088 -0.01744925 0.048904404 -0.10087101 -0.45640954 0.10842507 -0.12496404 0.033917755 0.048433647 0.11487037 -0.1725921 0.7081501 0.06289229 0.33529732 0.23155937 -0.11922601 0.074197374 0.015463142 0.08181611 0.07151389 -0.2434512 0.21179853 0.087229796 -0.19108286 -0.12227171 0.1942604 0.067745864 -0.04590746 -0.14201261 0.056245495 0.0044884137 0.014570463 -0.2954894 0.14739862 -0.16860493 -0.30664468 -0.072312936 -0.013001174 0.061335042 0.25818515 0.12223757 0.17118362 -0.13128984 -0.09724695 0.39265108 0.20281841 0.1343325 -0.14787884 0.08498151 -0.31381404 0.0049903477 -0.14968333 -0.06770902 0.24503927 -0.14678505 -0.14068614 -0.16902979 -0.14168511 -0.31131935 0.1272501 -0.046693984 0.14192027 0.2064073 0.38209045 0.2553108 -0.06944419 0.28392848 -0.2061943 -0.054041855 -0.15757397 -0.13976021 0.33146748 -0.18292001 0.12040573 0.16007519 -0.23986359 -0.14151688 -0.044294752 -0.22623257 0.27347824 0.018768942 0.2607534 0.12389731 0.0842026 -0.047249813 0.2850686 -0.07674862 0.010412398 -0.03637101 0.005728368 0.24240299 0.14566459 -0.16058238 -0.049445216 0.026545068 -0.10314122 0.12629156 -0.058764096 0.0940652 0.39335948 0.563129 -0.16169627 -0.08539851 -0.08265951 -0.053515878 0.116185546 0.110489085 -0.0942796 -0.028853554 0.26254863 0.16183819 0.046219435 -0.06988729 0.00999143 0.13947698 -0.19224776 -0.2804497 0.07020027 0.12251473 -0.03914451 -0.01741834 -0.03388839 0.13159427 -0.36241958 -0.06625167 0.22458754 -0.118629284 -0.22948132 -0.15470736 -0.12438383 0.053898405 0.13391863 0.029968115 0.271855 0.13105966 0.027900895 0.053203616 0.051746786 -0.06068588 -0.17214192 0.119154595 -0.043891806 -0.20826879 -0.19089612 -0.12167012 0.33208176 0.26136968 0.030773703 -0.029092224 -0.05917553 0.104341686 0.32386914 0.014041736 -0.0077226525 0.147528 0.004000331 -0.11183556 -0.22611442 0.058964066 0.19137482 -0.05265888 -0.011352426 0.15000315 0.25313574 0.16684446 0.18354133 0.45408943 0.029910397 0.048280645 0.30900565 -0.37733102 0.19452682 0.079934254 0.20279111 0.13999383 0.13895415 0.31669614 0.085699454 -0.0016507289 -0.15174267 0.011789526 0.11700996 0.19691315 -0.10367927 -0.017757673 -0.024096675 0.10746642 0.057060532 -0.09084 0.22918002 0.07466614 0.19064973 0.04028505 -0.035778604 -0.18647629 -0.064659424 0.08394655 0.10024857 -0.067165986 0.0040753153 -0.40399715 -0.14997192 0.056035656 0.16955306 0.0015673189 0.123124585 -0.18737015 -0.07780743 -0.016295262 0.24377497 0.020571908 0.11733725 0.11027587 -0.20908631 -0.0376623 -0.046973705 -0.0492175 0.45773485 -0.07194191 -0.21907319 -0.22519527 -0.13617645 -0.15230826 0.064083084
s -0.31240797 0.19260333 0.054000266 0.11377017 0.019413484 -0.10566339 0.041335978 -0.06580684 0.05645959 -0.08055637 -0.18980092 0.03730557 -0.006764607 0.021425337 -0.017196668 0.042051584 0.18036415 0.09698369 0.013131372 0.08686598 -0.18145129 0.087689355 0.052019376 0.01930944 -0.057352547 0.040097836 -0.0075424947 0.06872017 -0.13711962 0.04874907 0.00500538 0.13806908 -0.25524303 0.10896818 -0.08838152 0.13893364 -0.40404004 0.22012566 0.013563768 0.14076607 -0.21255288 -0.075769044 0.11515025 0.122247435 0.075044535 0.051795296 -0.027588507 -0.08589235 0.062040325 0.1933249 0.061212976 0.24522026 0.025264436 0.2920287 0.10944741 0.07782663 -0.1481515 -0.049852505 0.023556016 -0.066226326 -0.104817115 0.034416262 -0.11625289 -0.076746754 -0.057188496 -0.15425032 0.10516581 -0.03421125 -0.040454917 0.019453889 -0.04667022 -0.07547431 0.04214736 -0.04603585 0.11185233 0.19412893 0.23762326 -0.0131453425 0.23735018 0.021777589 0.07438671 -0.02520544 0.06965261 0.20882729 0.22665045 0.031562343 -0.05556603 0.005012627 -0.1698293 -0.17903584 0.04082196 0.04017562 -0.02746492 -0.09431233 0.16666654 0.07527189 -0.03642948 0.027571702 0.16605203 0.19114952 0.084129766 -0.08288866 -0.0672807 -0.042243976 -0.062472746 0.23626207 -0.034630895 0.2902161 0.021970613 0.07784865 -0.18618748 -0.22374572 -0.05379316 -0.19657624 0.2182705 0.15474498 0.101258285 -0.13493273 0.1741467 0.046859264 0.029906418 0.075684816 -0.14531384 0.088799804 -0.019712655 0.056939147 -0.0019217172 -0.09266345 0.025565552 0.011353555 -0.25122076 0.023320625 -0.12758797 0.01917419 -0.080050506 0.075823575 0.008069119 0.04827468 0.21343789 0.06755072 0.28531665 -0.03897039 0.049075548 0.05046104 0.095993385 -0.1661151 0.12011877 0.1777555 0.061948247 0.045491993 0.015135849 -0.14709067 0.14480762 -0.013826501 -0.15302786 -0.08221869 -0.06644203 0.20520087 -0.034262322 0.0053245355 0.092041045 -0.09294137 0.005467315 0.17870186 -0.045970786 -0.14319736 0.25010642 0.047939863 0.022488916 0.20304467 -0.12641817 0.0044864384 0.084497534 -0.26011643 -0.0040838635 0.25037697 0.108718775 -0.20478459 -0.2120646 -0.13104235 -0.007128442 0.006621993 0.0004898912 -0.09435487 0.024816273 0.095051 -0.07744004 0.085997924 0.0918797 0.10011632 0.17782816 0.11774795 -0.25068372 -0.1835582 0.050600573 -0.061663773 -0.15585044 -0.049123276 0.12076527 -0.3355539 -0.08229107 -0.045661394 -0.17146656 -0.046633806 0.15927832 0.15450205 0.0045066625 0.1729276 -0.04028477 0.14877726 0.08319042 0.30491713 -0.1276784 0.17007694 0.00865308 0.26195246 0.23469678 -0.1370793 -0.29583058 0.11277716 -0.044994622 0.04751482 0.13665652 -0.027193686 0.1415 -0.10040177 -0.03533427 -0.0028607037 0.07128049 -0.13607077 0.04998562 -0.25414145 -0.0058053522 0.10116711 0.06770156 0.027246598 0.16419925 -0.08860523 -0.05541958 0.16707578 0.0024813525 -0.16432905 0.06904519 -0.11125259 0.17866078 0.12923937 -0.13226405 0.075845025 0.17257081 -0.004429827 -0.09722661 -0.023831794 -0.0044224495 0.07894843 -0.056406766 -0.035535462 0.13373436 0.11921328 0.018369969 0.048401512 0.23967679 -0.08173004 0.21329221 0.1039607 0.120965086 0.18666285 0.026723051 0.056379847 -0.08412893 -0.01638012 -0.29700702 0.02673638 0.16481368 -0.18047477 0.03699665 -0.1304365 -0.19439945 -0.11168478 -0.09163736 -0.008133827 -0.18835576 0.15708028 -0.091181 -0.013207418 -0.019452529 0.122629575 -0.025650246 -0.01230016 -0.11820092 -0.24569717 0.030465413 0.022278462 -0.16875894 0.1197415 -0.154416 -0.35230878 -0.07449872 -0.02551332 0.10706138 0.3716445
x -0.187597 0.054816626 0.10096319 -0.11855536 0.21057102 0.07031631 -0.09071423 0.22161306 0.046181217 0.08570465 0.0026964443 0.015014743 -0.11332808 -0.18786934 0.059017614 0.16707666 0.050645366 0.39520985 -0.19872539 -0.15362096 -0.39543262 -0.13134654 -0.054424588 0.10982359 -0.14304209 -0.062978745 -0.53231514 0.07302734 0.11999333 -0.23807575 -0.14293 0.09690567 -0.053778473 0.03140483 -0.28997028 0.017148377 -0.104948066 0.17181776 -0.22882679 0.20464326 0.26677194 0.14815103 0.098220944 0.054575067 0.0021675688 0.13826382 -0.022832947 -0.23760867 0.25508294 -0.26174107 -0.14197391 0.071006075 0.02565611 -0.18486774 0.11927081 0.09529918 -0.05442291 -0.12984352 -0.079411864 0.12917756 -0.20138061 -0.022532623 -0.31871852 -0.17234065 0.08439121 -0.47040626 -0.16678683 0.21554291 0.04390949 0.18764168 0.105121955 -0.006733215 0.111266285 -0.049828257 -0.11199093 -0.05198979 0.1058005 -0.10191915 -0.078527264 -0.065104626 -0.120658964 0.05398869 0.074639395 0.023756547 0.15405102 0.045662038 0.060047682 0.24495152 0.22382754 0.023727352 0.06383498 -0.055623554 0.038539745 0.08356246 0.051847838 0.12021013 0.049575265 0.2754336 0.3642646 0.08007827 0.063428976 0.07689364 0.031901725 -0.16125037 -0.12678935 0.17027676 0.02150457 -0.032100562 -0.20739776 -0.020085633 -0.12629172 -0.111649655 -0.03136899 0.061639447 0.09043643 0.25483534 -0.16761772 -0.25846937 0.17229025 0.14212295 0.1602673 -0.08527773 0.09437394 0.16016854 0.098753996 -0.035069197 -0.029199746 0.21653366 0.12767164 0.28896353 0.067397885 0.16455178 0.17493905 0.13438267 -0.15246774 0.34302124 -0.10791505 -0.035247337 0.17062438 0.09638166 0.1298409 0.11467316 0.017125122 -0.27268475 -0.027808463 -0.034922637 -0.22654076 0.10323145 -0.0684139 0.07657155 0.1336648 -0.22244789 -0.04801678 -0.10331687 -0.16877586 -0.14839761 -0.022351306 0.20368783 0.034186065 0.039373312 -0.089731455 0.19814079 0.14079839 -0.0766105 0.0029249522 0.090861596 -0.20730132 -0.14533685 -0.22391936 0.03557526 -0.3074818 -0.21895781 0.13782309 -0.11564098 -0.14978817 0.35580993 0.24855636 -0.0931557 0.026755612 -0.16465957 -0.25421664 0.052291434 -0.058217872 0.031428162 0.080727465 -0.22548883 -0.15306942 0.14796253 0.049418163 -0.019562388 0.28858703 -0.18617769 -0.2493913 -0.1524963 -0.09741868 0.12197633 0.22032821 0.037769977 0.035944574 -0.20945518 0.0082737645 0.23869553 -0.23515669 0.07189368 0.15443437 -0.1732499 -0.08188172 0.030877981 -0.017134782 0.2949468 -0.039112244 -0.019344894 -0.08491757 0.041699607 -0.19638684 0.12599337 0.0774576 -0.15266186 -0.012950696 0.09915453 -0.25768155 0.23086438 -0.06390864 0.00024268262 -0.062512636 0.15030463 -0.095932595 0.13528493 0.22614327 -0.2762551 -0.15907271 -0.018914176 0.013033627 -0.09191251 -0.39483386 -0.13071437 -0.04683531 -0.13455626 0.17433995 0.08944461 -0.0559867 0.17477007 0.07156451 -0.024602726 0.04788246 0.14890657 -0.2701971 0.30953434 -0.27388892 -0.21096085 0.07308744 -0.045031097 0.14085121 0.2715418 0.101631746 -0.15088168 0.20055254 -0.2710802 0.12917477 0.23274338 0.13300562 0.17484239 -0.2100974 -0.2505119 -0.11229352 0.14010651 0.26543632 -0.1179127 0.15257274 -0.19560976 0.14526197 0.11803205 -0.1635546 -0.15158507 0.18608965 0.018595593 0.057486095 -0.10108259 -0.21831359 0.34210327 0.03354816 0.08404719 0.14880814 0.006771163 -0.089751944 -0.09968243 -0.0753674 -0.08183394 0.05692671 0.05294229 -0.05088716 0.18440185 -0.042810038 0.06806938 0.03734471 -0.00944105 -0.34706795 -0.055395488 -0.12864468 0.035999168
u -0.27297673 0.059764195 0.16503923 -0.004733301 -0.29180858 -0.12498714 -0.22360095 -0.28920546 -0.06160749 0.105313405 -0.012256066 -0.25922522 -0.36634985 0.14259745 -0.2505572 0.11940573 0.059088502 -0.014848495 -0.006456174 -0.1833915 -0.054688286 0.13313669 0.38992426 -0.1223681 -0.13929108 0.13260943 -0.29432178 -0.29247603 0.02141425 -0.0938126 -0.117908895 0.103020325 -0.088561065 -0.2183106 -0.21351615 0.11037815 -0.18730348 0.198487 -0.032047886 0.24077126 -0.013240484 -0.1207776 0.39984605 0.14519417 0.17861855 -0.22424349 0.24333349 -0.14890091 -0.12565863 -0.1221512 -0.09385534 0.2364259 0.15786667 0.31201142 -0.014541775 -0.014954731 -0.21564148 -0.0082858205 0.008316392 -0.08292788 -0.011604506 0.017778374 -0.28741106 -0.0006806901 -0.071153745 -0.33229503 -0.09503145 0.16912273 -0.027390635 -0.03105128 0.03807433 0.10199108 0.05791556 -0.00036890255 -0.00967224 0.061995983 0.08323618 0.15442336 0.12417986 -0.11252492 -0.25462016 0.055242706 -0.040149286 -0.16133341 0.08160313 0.11288128 -0.07358788 0.23016584 -0.0056526023 0.048193794 0.029172668 -0.06860777 0.0073885247 -0.05536683 -0.036961026 0.12867242 -0.029969526 -0.01937772 0.47218388 -0.13130315 -0.26418266 0.029029885 0.0654718 0.06666788 -0.10789671 0.1359916 -0.05221062 -0.23445976 0.12608801 0.016739925 -0.2951686 -0.3250937 -0.14117852 0.026163682 0.22240964 -0.08421022 0.017659852 -0.21765138 -0.10250232 -0.22756752 0.1818341 0.07804392 -0.12577763 -0.03155078 0.10795542 -0.0983084 -0.18409127 0.113018535 0.1483497 -0.03552511 -0.44700867 -0.050155915 0.017647691 -0.122100264 0.025897903 0.024419181 -0.22443007 -0.09524755 0.13341722 0.1558126 0.26689756 -0.16162524 0.0330281 -0.20507969 -0.14433417 -0.0752659 -0.050564196 0.073408976 0.0529603 -0.14060399 0.11806972 -0.28221944 -0.10492734 -0.21607473 -0.11257033 -0.028658863 0.17691287 0.3494812 0.026644873 -0.072475486 -0.015628992 0.17146085 0.120045386 0.010652048 -0.013882136 -0.31669763 0.20666541 -0.0877164 -0.18717127 0.0021329143 -0.06680255 0.07665614 -0.06559502 -0.012107542 -0.1625921 0.19751593 0.20281832 -0.18705429 0.20346865 -0.14944328 0.08621001 0.0946237 0.022620415 0.057579674 -0.0517674 0.21048683 -0.10484132 0.13404295 0.1769041 -0.058633395 0.27315018 0.046427153 -0.16336629 -0.022567675 0.28313047 -0.047878895 -0.029812464 0.090028085 0.16457778 -0.106865115 -0.099850945 -0.14628877 -0.20369951 -0.18296848 -0.017872898 -0.05373727 -0.047106747 -0.04053798 -0.058723655 0.16373545 0.2694363 -0.009706552 -0.21093418 0.13279128 -0.2760067 -0.09659448 0.17386319 0.03263859 -0.31054223 0.1854114 -0.26619363 0.09363083 -0.0014795965 0.10735612 -0.046611883 -0.12796986 0.03947001 -0.056004953 -0.26181066 -0.2544643 0.23979211 -0.02678317 -0.14040056 -0.048367612 0.09103127 -0.056256827 0.057584114 -0.090691976 0.21791081 0.13543154 0.14151156 0.21218418 0.16924979 -0.01147104 -0.2626168 0.17286935 -0.18593033 0.32606927 -0.0505185 -0.22515246 0.40629023 0.081566736 0.022331689 0.36621442 0.1914011 -0.116306975 -0.06271914 0.078465246 -0.042263452 0.017625535 -0.03296203 -0.015887195 0.041550923 0.096188255 0.06158483 -0.0073920623 -0.08024908 0.11239898 -0.033193536 0.026438888 -0.013310598 -0.025370607 0.14150093 0.15904549 0.04275896 -0.12430594 -0.04811112 -0.13311285 -0.24921976 0.26037684 -0.021444269 0.08840887 0.079742484 0.1309821 -0.14647453 0.12742233 0.10026406 0.1343129 -0.15768637 0.048198223 0.122810945 0.19356227 -0.21694542 -0.15033908 -0.17224368 -0.20672552 -0.26769108 -0.17424813 -0.064873286 0.2042003
f -0.2230513 0.13839176 0.18993714 0.119485684 0.011439701 -0.085982576 -0.23055355 -0.065664865 0.13670819 0.14058499 -0.053407934 -0.13992883 -0.22180302 0.08440273 -0.10488861 -0.009202057 -0.0688493 0.1275195 -0.2006566 -0.07193006 -0.2382099 -0.057364337 0.1676824 0.0022226307 -0.14613453 0.16028021 -0.23993376 0.04587283 0.18296407 0.34445864 -0.0849444 0.0051262667 -0.1692315 0.06025226 -0.25944278 0.14018035 -0.15248027 0.21395434 -0.09991979 0.0008912316 0.025091363 -0.024595154 0.1384407 0.046858143 0.023239532 0.081249446 0.046122294 -0.3173428 -0.26117292 -0.06299878 -0.3666165 0.18133406 -0.26705346 0.30407494 -0.013697712 0.18884301 -0.11770316 -0.2845773 -0.0280292 -0.15508036 -0.19680588 -0.01683852 -0.20264533 0.053693604 -0.008273205 -0.2761959 -0.08878201 0.12524034 -0.18667299 -0.041849867 -0.043537587 -0.18342984 -0.044368114 0.0708094 -0.0715253 -0.055784717 0.09432033 0.069091626 -0.051175788 0.0465328 -0.32315278 0.06132121 -0.17199843 -0.044372477 0.28338078 0.07602977 0.059271697 0.37956974 0.13140756 0.013762182 -0.020855596 0.26877844 -0.09666227 -0.1373871 0.12976666 0.081005976 -0.10686468 0.014371587 0.2745143 -0.015202598 -0.37652636 -0.069635645 -0.016817382 -0.21343409 0.0038662895 0.10623933 -0.07233559 0.07797198 -0.07854583 -0.17809093 -0.29632142 -0.24987398 -0.108357914 -0.05841049 0.060494903 0.15177342 0.26116478 -0.1450426 0.037659053 -0.0109021785 0.114830524 0.10997963 -0.021780707 -0.1557782 0.20067681 -0.21955805 -0.046280015 -0.17410053 0.07469076 0.12109462 0.08160112 -0.077864885 -0.10080333 0.078802355 -0.16883008 0.014336667 -0.091651045 -0.13278186 0.42439488 0.046946105 0.25032803 -0.20957725 -0.030912641 -0.1096352 0.095949575 -0.06717718 -0.097635314 0.22711049 -0.2585126 0.23422255 -0.014179755 -0.1941388 -0.0023543246 -0.19071327 -0.10352698 -0.10964819 0.00478239 0.12321618 0.03975709 -0.10289226 -0.047046136 0.40824333 0.010713548 -0.08944294 -0.13436747 -0.09719201 -0.015957177 -0.006231785 -0.124534205 0.116806135 -0.087104484 -0.11108728 -0.04967227 -0.001817359 -0.009324071 0.21350189 0.48818794 -0.23628518 -0.05401225 0.037118446 0.16880506 0.09392093 0.056986615 -0.12648506 0.047715154 0.15383166 0.07913018 -0.03946603 -0.045236208 0.05365108 0.25743923 -0.12094977 -0.26010543 0.079303876 -0.03179151 0.10391808 -0.18392555 -0.1648024 0.088255644 -0.08935838 -0.22264491 0.19607073 -0.47537214 -0.16113363 -0.0912307 -0.20146865 -0.17311385 0.20863865 0.03861825 0.26753417 0.19818136 0.0699843 -0.16649163 -0.20901145 -0.11270708 0.22199906 -0.028224116 0.09325096 -0.11670163 -0.16381314 -0.014758701 0.15760244 0.26974458 -0.08133818 0.013256112 -0.05083408 0.10857038 0.15145059 -0.10175074 -0.17335144 -0.0680719 -0.012924514 -0.15427713 0.04545181 0.18085723 0.123867944 0.004483744 0.1681349 0.2686911 0.14962792 0.124766715 0.20699385 0.38442343 -0.007998591 -0.07235073 -0.011193657 -0.18502091 0.26774055 0.24231873 -0.08913028 0.19628596 -0.047539297 0.06647905 0.13521309 0.038991537 -0.25633097 0.009021583 -0.05260658 0.09168228 -0.1369662 0.00023893865 -0.014614111 -0.05956913 0.111663036 -0.17855993 0.008593488 0.120086506 -0.17632058 0.08073121 -0.31757572 -0.21556272 -0.027239848 0.1804313 0.011211837 0.050976653 -0.19365169 -0.30368194 -0.050805096 -0.095767654 0.029928152 0.021079633 0.21581028 -0.022818921 -0.0011613735 0.06422154 0.10665655 0.06959898 -0.11277702 0.0720594 -0.16119874 0.31659606 0.07772723 -0.10823967 0.09975534 -0.21388072 -0.3234409 -0.19430241 -0.05241017 -0.32025757 0.10873791
h -0.30257252 0.30252033 -0.044829745 0.048529565 -0.15267593 -0.046787597 -0.25935084 -0.12065049 -0.012787328 0.086502984 -0.06525399 -0.15929374 -0.38744897 -0.015151935 -0.23375754 0.11166741 -0.2386861 0.28132305 -0.052187406 -0.08797745 -0.38108325 -0.24073206 -0.02657651 0.019751407 -0.104269974 0.07243866 -0.3143154 0.089642026 0.26931286 0.033201076 0.02410615 -0.034586024 0.0006507059 -0.09344624 -0.23795938 0.13214508 -0.36611912 0.20651548 -0.15052478 0.17104632 0.06500113 -0.09219529 -0.020274475 0.14464408 0.13520676 -0.16016081 -0.1207458 -0.14611535 -0.22105467 0.034417715 -0.20541985 0.3019108 -0.09425762 0.33054692 0.04656103 -0.031703983 -0.2446789 -0.19274147 -0.07929196 -0.17598204 -0.24569836 -0.07455586 -0.36291295 -0.0824852 0.017175915 -0.33188707 -0.16360876 0.11036173 -0.059141614 0.027998123 -0.06443068 -0.026706034 0.08178727 -0.098926716 0.009186195 -0.14656657 0.105920106 -0.003356122 -0.093503684 -0.13413507 -0.0937587 0.09709353 -0.0034929398 0.03404344 0.21012859 0.20336924 -0.0067229257 0.29831982 0.11873238 0.11149753 0.009742623 -0.012948941 -0.03336748 -0.24172518 0.09140495 0.15247165 -0.0997266 -0.0329319 0.16751459 0.023691868 -0.1519215 -0.13410339 -0.048566658 -0.18161815 -0.21254097 0.05640563 -0.12446096 0.09951659 -0.06996278 0.0051176175 -0.122495286 -0.12842117 -0.0038397673 -0.08413604 0.01750114 0.1965846 0.2069408 0.0114355255 0.07706026 0.12548703 0.04849746 0.09519082 0.15203795 0.044853434 0.14977077 -0.019329384 -0.013399302 -0.07970028 0.08453661 0.12675485 0.14286476 0.048460465 -0.07109116 -0.024918977 -0.32031804 0.12264801 -0.06784194 0.1439649 0.23051491 0.3257152 0.23262373 0.02363912 -0.026007298 -0.24996464 0.10656309 -0.040353663 -0.14322507 0.30268687 -0.18712416 0.119956076 -0.01803732 -0.4270491 -0.06737161 -0.09210776 -0.13273926 -0.058025274 0.13599302 0.17508382 -0.0032456454 -0.16081259 -0.023427345 0.2537114 0.15033466 -0.043194517 -0.040661044 -0.059477326 0.06106118 0.14042133 -0.07871698 0.11546522 -0.19064336 -0.28269717 -0.015010366 -0.027700573 0.040410727 0.28162575 0.3183567 -0.16559188 0.24794982 -0.2137769 0.030882007 0.15084532 0.06691856 -0.048054956 -0.08521015 0.3051407 -0.006729362 0.0047674864 -0.0997467 -0.1026819 0.10686139 0.037812218 -0.1346557 0.11231363 0.20274138 0.11258516 -0.2846886 -0.087314755 0.0486682 -0.17315122 -0.28757086 0.09781627 -0.24997868 -0.11036839 0.14033248 -0.21160276 -0.16799302 0.2893444 -0.037946224 0.03822448 0.09131904 0.07330816 -0.3760244 -0.13258839 -0.08828918 -0.06646717 0.12601356 -0.03614622 -0.022113236 -0.008428655 -0.063007295 0.15299298 0.21944545 -0.111133866 0.07846429 -0.14363514 0.07702842 0.11473151 0.12501825 -0.05571634 0.09781911 -0.05711253 -0.13824898 -0.050047673 -0.133648 0.059927296 -0.109405726 0.13155009 0.10118405 0.12566075 0.0062895776 0.11075294 0.293055 -0.033928793 -0.019127835 0.22931845 -0.24630956 0.2811651 -0.06262422 -0.14843905 0.14334753 0.07794531 0.06899308 0.012221325 -0.11444287 -0.099195234 -0.09096352 0.057239763 0.10582099 -0.07797832 -0.033190925 -0.06804029 0.026358075 0.07996491 -0.1516564 0.13355881 0.18635496 -0.12236862 0.0056521557 -0.29604524 -0.0053078085 -0.08141821 -0.016793914 0.037855692 0.1111567 -0.20734084 -0.2521046 -0.15032241 -0.14241858 0.08752534 0.0034694138 0.25498244 0.12548614 -0.014509246 -0.011262956 0.035340287 0.13958919 0.16324691 -0.040983997 -0.13893881 0.16439709 0.11558485 -0.09251485 0.21036649 0.061245006 -0.2335033 -0.3902811 -0.014195962 -0.26903197 0.121291935
a -0.023279145 0.015152199 0.0017976144 0.01491541 -0.008567628 0.0029742238 -0.011577015 -0.010913834 -0.0035921065 0.0048231604 -0.004875162 -0.013642265 -0.027557053 0.0053601013 -0.01529782 0.013631542 0.012655945 0.01880674 0.0018974695 0.0022511752 -0.029823614 -0.006056998 0.015504603 0.0022988368 -0.010772335 0.004379076 -0.030506711 0.0016757539 0.00093473075 -0.0010170976 -0.0010416962 0.004176079 -0.010979438 -0.011687382 -0.0132181365 0.010922367 -0.028682552 0.011167946 -0.006380722 0.008135446 -0.006679022 -0.007346832 0.007813753 0.009209407 0.0048066294 -0.0004808478 0.00020386772 -0.019369004 -0.015785368 0.010918953 -0.019565057 0.032592032 -0.0034144286 0.026323872 0.004336001 0.01791006 -0.020521438 -0.010276678 -0.0014330216 -0.01722891 -0.0131364465 -0.004104785 -0.024621686 -0.010341794 -0.0063763265 -0.020642135 -0.012124022 0.015545859 -0.010763233 0.0055434676 0.0044502732 -0.007154753 0.0015526199 -0.00032642903 -0.0064115743 0.0034788572 0.017098032 0.0053639733 0.0064162654 -0.011267203 -0.020002177 -0.0004309325 -0.009204305 -0.0023067615 0.017337522 0.006939177 -0.00017329192 0.022186106 0.003394473 0.006753643 0.0025810322 0.0037207573 -0.006657629 -0.017810898 0.0076227235 0.01222689 -0.011473023 0.011970052 0.031931557 -0.0013079431 -0.013117425 0.0031355375 -0.006749151 -0.00051607954 -0.0078052115 0.01716782 -0.009224816 0.006090412 0.005587567 0.0058387066 -0.019724114 -0.025686963 -0.0049331617 0.00030707952 0.00913584 0.016810918 0.0053521297 -0.008595915 -0.0045220624 -0.004717432 0.013909727 0.0102603985 -0.0028686833 0.004487363 0.015820183 -0.01746932 -0.013170601 -0.004382531 0.010590394 0.013063855 -0.0075854086 -0.002950968 -0.0046277437 -0.002019335 -0.020975275 0.010583526 -0.006502808 0.0018531285 0.029792825 0.011201802 0.027228154 -0.0113521665 0.0066066976 -0.006144655 -0.009202081 -0.013854944 -0.0067604654 0.017715888 -0.007885458 0.0035992153 0.0061857663 -0.03711492 -0.007304968 -0.0026922047 -0.008467482 -0.012935817 0.008192182 0.02094589 -0.002984258 -0.0021496785 0.0024235498 0.014765392 0.00013834785 -0.0010323748 -0.0025451274 -0.0051922407 0.0178227 0.0041259523 -0.014321336 0.011836882 -0.014395842 -0.0114008775 -0.008877692 -0.009695161 -0.0016950682 0.02575559 0.030815981 -0.025546938 0.0039026723 -0.014050182 -0.0024896138 0.006804085 0.002741567 -0.008235621 -0.00070928567 0.010346292 -0.010680211 0.00811073 -0.0042748903 0.0098822955 0.013630824 -0.0043627815 -0.028727831 -0.004123658 0.014716545 0.006258408 -0.012305914 -0.0011240235 0.004454376 -0.01074342 -0.011923443 -9.8390796e-05 -0.027669841 -0.015802566 0.011212791 -0.0095633995 -0.0015527857 0.011256415 -0.005602093 0.016276639 0.019554503 0.009855517 -0.016001407 -0.000510579 -0.012686965 0.0095316395 0.020497026 -0.005079114 -0.017438523 0.0010179128 -0.015071477 0.0101800375 0.009089122 -0.0046420745 0.0017678251 -0.012107866 0.009052854 0.006248418 -0.002638935 -0.019579055 0.002635281 -0.0055878214 -0.00810272 0.004177332 0.00039942667 0.0005277547 0.0077391635 0.009109024 0.01336598 0.007168889 0.010564341 0.010008121 0.033034734 -0.0014932939 -0.004368904 0.009035192 -0.015394444 0.018944126 0.0064302464 -0.014376541 0.010590698 0.0016333733 0.0052745654 0.011411481 -0.0010642342 -0.014075659 -0.010972094 0.004352628 0.0016780179 -0.010395445 0.0054337755 0.0014125883 0.010338793 0.0013547457 -0.010704117 -0.001277667 -0.00048953394 -0.0020945137 -0.0010544825 -0.004755649 -0.0063908217 1.0028065e-05 0.0073201987 0.003647756 0.01055381 -0.010361712 -0.02187431 -0.0164421 -0.013315655 0.0054933373 -0.011370072 0.016853819 0.004427436 0.004310518 0.0013459702 0.0117219975 -0.001795201 -0.003459965 -0.00798702 -0.0002672099 0.00965831 0.0021241894 -0.013252894 0.00597976 -0.0017023935 -0.017091254 -0.010035003 -0.006069398 -0.012213898 0.02373262
G -0.1490127 0.12746055 0.2623151 0.05740454 -0.10394501 0.13300063 -0.28349152 -0.5825629 0.015371343 0.09109178 0.08470116 -0.038174324 0.16685444 0.07605429 -0.41328794 -0.09569009 0.104054004 0.2216191 -0.07688223 -0.08770042 -0.21215591 0.19612813 0.08540852 0.048217934 0.034064937 -0.011150473 -0.32498902 -0.121203 -0.026196035 -0.10414542 -0.40695614 -0.18831854 -0.09451061 -0.2379946 -0.03484814 0.077715196 0.36412996 0.28703168 -0.31031162 0.23939896 0.1168846 0.3343117 -0.03158944 0.1766828 -0.15173185 0.18034652 -0.029502448 -0.15267904 -0.08035268 -0.04872653 -0.21429238 0.04231547 0.06585208 0.2180863 0.32186997 0.25955525 -0.21812217 -0.39101362 0.14100091 -0.16762565 -0.19078395 -0.14445171 -0.20247659 -0.13257125 0.050432786 -0.31986412 -0.25166535 0.11554505 0.092006415 -0.29541442 0.010153261 -0.23094574 0.0067110294 -0.003910179 0.13141753 0.044872604 0.11082126 0.040563095 0.014089033 -0.13910925 -0.12705341 -0.10152732 0.023399992 -0.12753803 0.20352145 -0.13715065 -0.3089221 0.21297953 0.4276302 0.31612512 0.00042558947 -0.30015746 -0.17216095 -0.12835045 0.026208952 -0.20803648 -0.12939562 0.074147955 0.16458431 -0.14255682 -0.14517726 -0.049342934 0.08304974 -0.0038400448 -0.10949872 -0.03741329 -0.10893737 0.114780754 -0.15216394 -0.14010505 0.1565858 -0.0665635 -0.05516615 -0.19380014 -0.04946795 0.024693238 0.32630768 -0.031377282 -0.085265 0.11892659 0.080401756 0.016200673 0.046901036 -0.14856192 0.090407014 -0.2477812 0.10773955 0.27852738 0.32026532 -0.07152811 -0.0072412705 0.16000274 -0.18545376 -0.233983 -0.13514611 -0.047345985 -0.12623215 0.22807169 0.026370257 0.16365437 0.41897523 -0.30278584 0.09974987 -0.06364674 -0.027405882 -0.18359007 0.30773383 0.40824434 -0.20011571 0.065842874 -0.014783185 -0.21590535 -0.11687417 -0.16269824 0.098845 0.4065085 -0.071771555 0.102726415 0.22603634 0.18289796 0.019016454 -0.020871008 0.06751185 0.03438265 0.100630425 -0.0028300479 0.057031166 0.15181777 -0.29176313 -0.09384343 0.036532167 -0.19552915 -0.2248004 -0.06760571 -0.03483238 0.3827125 0.0948288 0.059346706 -0.25785932 0.049286723 0.29278982 -0.010361407 0.55657554 0.18426867 0.03263075 -0.03591153 0.20709895 -0.0412295 0.012722765 -0.19667286 0.23184869 -0.18945411 -0.20634776 0.12110275 0.099208295 0.13782868 0.19863535 -0.07545737 0.087397106 -0.3706999 -0.11280064 0.0566926 -0.29482028 0.25341484 -0.13514201 -0.10382279 0.12955488 -0.16500765 -0.07015339 -0.048915546 0.05355266 -0.3173639 0.11577365 0.06954677 -0.17481788 -0.3131117 -0.091190465 -0.03729769 0.014676499 -0.089806296 -0.31887043 0.35417506 0.0162975 0.023232887 -0.014935419 0.3863728 -0.3133878 0.06729113 0.24966769 -0.034975413 -0.023181707 0.029210841 -0.034508497 -0.11691566 0.23086652 0.20381814 0.03619944 -0.05455333 -0.05441673 0.20372929 0.068719946 0.19722869 0.08884794 -0.19296832 0.14465758 0.1938235 -0.14389874 -0.2132876 0.18370873 0.21191435 -0.26052448 0.4098168 0.26507306 0.0735829 0.23179196 0.036004532 0.3429029 -0.12672813 0.052322824 -0.31773588 -0.16894616 -0.07827112 0.21282658 0.029689658 0.1335717 0.112980336 -0.26314798 -0.041672293 -0.0034769112 0.128721 0.07036666 -0.104563765 -0.15920731 -0.111109115 0.17498092 0.10934173 -0.22921348 -0.16543888 -0.2335989 0.102785185 -0.28954554 -0.13881123 -0.08040281 0.017108483 -0.22404288 0.13886246 -0.08706197 -0.080632426 0.007812812 -0.46983886 0.23609076 -0.07430307 0.055167258 0.17398144 -0.097665414 0.025551217 -0.1403414 0.25607544 -0.109020196 -0.00510054
g -0.39094517 -0.011282131 0.15306745 0.16206823 -0.11223862 -0.006540872 -0.084354036 -0.15618159 -0.17356527 -0.031588662 -0.08968651 -0.07661944 -0.3268696 0.13104083 -0.14330046 0.12713327 -0.2378423 0.2862435 -0.22413118 -0.11759738 -0.32934988 0.0053585907 -0.16381446 -0.030164266 0.014781091 0.05180384 -0.36070645 0.15132597 -0.04630981 -0.054027934 0.18913686 -0.081706114 0.28362146 -0.09544765 -0.23987006 0.16228409 -0.2710971 0.2289742 -0.122479126 0.16711348 -0.06304752 0.04899402 0.19525863 0.26848596 0.0011610548 0.01474906 -0.024462814 -0.051911224 0.2000943 0.029062307 -0.08607555 0.22951658 -0.17930645 0.40065062 0.18492158 -0.032408483 -0.36467376 -0.33996913 -0.03377872 -0.22135028 -0.10667374 -0.05505353 -0.2511143 0.073164426 0.16875355 -0.42718098 -0.118087575 0.036414653 -0.106297255 -0.009357529 -0.029241359 -0.14105529 -0.09905288 -0.09182292 0.07044285 -0.3835988 0.078607686 0.0451512 -0.12249686 -0.2601402 -0.23600538 0.0791324 0.020204658 -0.037802625 0.13649009 -0.117935106 -0.04331074 0.4915124 0.08244339 0.17987059 0.006021187 0.07085306 0.044771403 -0.11621077 0.4111665 0.18046007 -0.16570222 -0.039445695 0.27476272 0.019494038 -0.15378246 -0.17202099 0.064796835 -0.038188707 -0.13945445 0.0835912 -0.026297938 0.22765967 -0.05810932 0.021525022 0.0039031506 -0.00842018 0.042830303 0.0012561111 -0.09723327 0.25959685 0.17624326 -0.026594523 0.02171087 -0.036575492 0.18508497 0.029902037 -0.07369142 0.04141952 0.50168824 -0.07575034 0.27542263 -0.01355569 0.22987147 -0.012806219 -0.089872964 0.14650226 -0.0845748 0.13021526 -0.12708077 0.12725453 0.15705253 -0.094222575 0.45477334 0.14334814 0.14260973 -0.0814514 -0.19250967 -0.22154978 0.020566288 -0.103003845 -0.013072183 0.3208228 -0.111187264 0.013790129 0.22449699 -0.41424683 -0.18092367 0.11227086 -0.16046865 -0.045772657 0.036067978 0.09193289 0.06248517 0.06785376 -0.0575632 0.21803555 0.32264492 0.037393425 0.012269321 -0.10414275 -0.02083681 0.07333848 -0.029235102 -0.115183875 -0.26292524 -0.16920246 0.00590472 0.15078646 -0.06421279 0.03102906 0.046819128 -0.36486235 -0.013093736 -0.16801518 0.24456397 0.14936396 0.18163647 0.16309778 0.012424373 0.06336532 -0.11716568 0.04947361 -0.1858377 -0.007533593 0.22008677 -0.017139135 -0.25123924 0.058795754 0.039546035 0.20474848 -0.05969854 -0.0255457 0.13648677 -0.18797603 -0.05458991 0.20029704 -0.13427232 0.037877277 0.040558286 -0.114319466 -0.2415082 0.14863911 -0.035652112 0.43911418 0.17828095 -0.1684405 -0.0034045053 0.047195986 -0.2918729 0.055121854 0.011001071 -0.10915381 -0.1865614 0.024644068 -0.13983954 0.44340715 0.05701721 0.113866284 0.09744795 -0.010744036 -0.00972572 0.09123961 0.21617326 -0.18893526 0.21532364 0.013631393 -0.078843065 -0.018205551 -0.049479835 0.14978498 0.05474142 0.0727265 0.032418948 0.22326829 -0.045538977 0.15299252 0.39018977 -0.078766145 0.017575854 0.059781358 -0.30481714 0.36407954 0.035709403 -0.032871004 0.15207984 -0.14073448 0.100021414 0.06571956 -0.01283497 -0.2757688 0.014763149 -0.16420957 0.24965526 0.06400897 0.12125636 0.06765711 -0.07070806 -0.033197623 -0.08606084 -0.07289027 0.072770394 -0.13342032 -0.19624592 -0.18450902 -0.14856979 -0.13043642 -0.10534965 0.10071675 0.043134246 -0.26792148 -0.24410892 -0.2789101 0.0024876702 0.09851901 -0.03637237 0.257586 0.047916647 -0.07051364 -0.38751772 -0.019900361 -0.067479536 -0.1311114 0.027741306 -0.21491095 0.05007421 -0.086876735 0.1739014 0.14388935 -0.082803264 -0.032673743 -0.21093252 -0.06897324 -0.14909877 0.25519934
y -0.13104951 0.071157396 0.15856925 0.1527408 -0.0052853916 0.08667289 0.054052424 0.023694988 -0.026142348 0.12654403 -0.123560466 -0.13084756 -0.24041572 0.080359705 -0.11697126 0.19573134 0.181077 0.48837093 0.15912743 -0.011548282 -0.27409267 -0.11442788 0.09863797 0.19870031 -0.018135602 -0.15824425 -0.33877328 -0.00058745116 -0.15215759 -0.03263066 0.11465292 0.15344328 0.04517764 -0.12092438 -0.29576078 0.09415917 -0.1155114 0.14706783 0.012970463 0.049365863 -0.031791177 0.04348547 0.051092084 0.18219905 0.024056515 0.0025535494 -0.085791506 -0.2698177 0.057952207 0.26808563 -0.33258295 0.47953165 0.14685144 0.096962504 -0.14992778 0.24646318 -0.07076523 -0.09959481 -0.11836973 -0.14822198 -0.27143157 0.097162984 -0.24582766 -0.25670147 0.14754088 -0.24562944 -0.08661366 -0.06419749 -0.0757467 0.14646608 -0.04358865 -0.1097202 0.019618545 0.14790408 -0.047414634 0.2870311 0.22471792 0.10673623 -0.14131251 -0.10105668 -0.1470136 0.08267344 0.060374115 -0.082308896 -0.102765 -0.0050147893 -0.11298945 0.4088993 -0.038121257 0.118665434 0.24329369 -0.017687825 -0.055695552 -0.13303657 0.124388404 0.06851083 0.029558832 0.1366462 0.10568296 -0.12527993 -0.048503187 0.1898349 -0.2517846 -0.12169516 -0.0043542935 0.12204075 -0.033245027 0.13779257 -0.19875053 -0.119721085 -0.2822334 -0.23770228 0.2670751 -0.3110814 0.0079766745 0.26377973 0.00759129 0.15915027 0.0283015 -0.0026057295 0.2814183 -0.19759296 -0.03485382 -0.13376585 0.2702134 -0.12187816 -0.052461937 0.053515922 0.13178399 0.11794374 -0.21349442 -0.014926673 0.21940057 0.21207704 -0.08393726 0.2648859 -0.07753209 0.07888328 0.44176427 0.075359076 0.060238875 -0.20898029 -0.14698096 -0.050385043 -0.038571626 -0.008397447 -0.086800575 0.20739913 -0.24809784 0.020705434 0.023107773 -0.59282994 -0.09518456 0.07157988 -0.1417238 -0.09982285 0.0009074446 0.3862184 -0.00407341 -0.1232223 0.057569847 0.20539501 -0.026067648 0.16934626 0.06939733 -0.04652115 0.08848471 -0.033848327 -0.19300409 0.1753609 -0.082452185 -0.32538244 0.16713473 -0.0093709035 -0.04118035 0.4191715 0.25720254 -0.3850908 0.124439105 0.117119655 0.017608128 -0.011635549 -0.06273705 -0.037206326 -0.0043484713 0.028290268 -0.12178473 -0.01627414 -0.01796427 0.024213899 0.0063893152 -0.052443262 -0.18539782 -0.04915221 0.22722958 0.043437116 -0.26801774 -0.007269179 0.059696555 0.24368976 -0.12604369 0.05974235 -0.36669225 -0.14141196 0.12562326 -0.10347933 0.0840326 0.040010687 -0.30207664 0.16005032 0.26516563 -0.081782095 -0.29828617 0.075958684 -0.038763475 -0.09383241 0.06174267 -0.35370502 -0.14577329 0.21508826 -0.121347964 0.36071628 0.1323695 0.025693519 0.070162885 -0.09684338 0.13769332 0.21373856 -0.1310134 0.10116611 -0.06613719 -0.21624792 -0.24221817 0.09945287 0.104954645 0.10880323 -0.15785834 0.07346179 0.33919594 -0.04240377 0.011157383 -0.01732273 0.32168165 0.03538219 -0.07660087 0.15952094 -0.04358586 0.2651575 -0.2295122 -0.051327705 0.026716007 -0.03098994 0.1690378 0.16438329 0.085574634 -0.38811278 0.039311018 -0.09700288 0.10291627 -0.015044123 0.18203583 0.17490247 0.14468594 -0.11945838 -0.118425325 3.2037606e-06 -0.12760738 0.054350186 0.1707047 0.023672972 -0.16122614 0.13259977 0.30599865 -0.1401541 0.06799905 -0.13272636 -0.29634988 -0.1132675 -0.2655706 0.14220726 -0.11750614 0.121497594 -0.026069999 -0.08835871 0.23161116 0.017783118 0.013608184 -0.15806773 -0.084567465 -0.13720265 0.09829126 0.06688077 0.017363496 0.11455951 0.01747729 -0.03037232 0.14650974 -0.07690504 -0.070069216 0.20668457
p -0.06573622 0.13034196 -0.09894435 0.38775998 -0.21603414 -0.15734686 -0.09584524 0.15096667 -0.07688625 -0.07060452 -0.11372341 -0.31497142 -0.099172644 0.15082647 -0.2124747 0.09551934 0.016906714 0.5062303 -0.052203543 -0.16916554 -0.37802672 -0.20824602 0.11221276 -0.05362711 -0.15808487 -0.12796718 -0.457404 0.38193575 -0.19135287 -0.005651237 0.11456888 -0.18022887 -0.4142781 -0.3105472 -0.44995394 0.014220109 -0.18298899 0.32807234 -0.19013792 0.15669228 0.16528492 -0.24900997 -0.3112248 0.115770474 0.14585097 0.06844089 -0.15224524 -0.18984899 -0.03771795 0.033004865 -0.28430074 0.31312555 -0.26288947 0.13993692 0.16415577 0.22080983 -0.110520616 -0.10185094 0.034479577 -0.35972118 -0.23889984 -0.07361968 -0.20786086 -0.0052030957 -0.104037605 -0.61667407 -0.12170857 0.083318956 0.021984294 0.18793105 -0.24536656 -0.28121036 0.19178678 -0.03769724 -0.0012333997 -0.06780224 0.29876587 -0.09090702 -0.150376 0.035834134 -0.24536672 -0.018557917 0.14715546 0.076619685 0.10959637 -0.08099392 -0.06334554 0.6408497 0.02320456 0.10386226 0.20428905 -0.13880078 0.047125272 0.08363444 -0.066960655 0.13180323 -0.13302669 -0.0996048 0.11636363 -0.34857875 0.05342526 0.039446145 -0.053691175 -0.023792412 0.14129798 0.3220963 -0.081649914 0.2051919 -0.1884946 -0.14631616 0.14980999 -0.14354765 -0.20170677 -0.3514089 -0.028470928 0.14352779 0.12981543 0.0032094494 0.16796853 0.15025157 0.10262563 0.1807524 0.17620717 0.07726937 0.24755575 -0.5233051 0.031798575 0.06412434 0.04171656 0.14908141 0.016773779 -0.25039324 0.04490937 -0.19572496 0.0069295405 -0.12386541 0.09934599 0.30609265 0.1322608 0.24022675 0.2042304 0.11901896 0.03710681 -0.090851486 -0.29693925 0.058897693 0.022703536 0.11750423 0.08374998 -0.014256363 -0.07732193 -0.43773854 -0.23021093 -0.14201425 -0.2035175 -0.20850953 0.010143679 0.34069082 0.032763917 0.043689106 -0.021596266 0.31781992 0.105419345 -0.0029199922 0.09279124 0.09445037 0.24054489 0.12678961 -0.32221723 0.242232 -0.1208006 -0.2778401 -0.01491943 0.11532465 -0.1975046 0.36851543 0.21615915 -0.28013268 0.024776068 0.18365473 -0.18902346 0.15344322 0.28260097 0.110598825 -0.19049685 0.14260578 -0.013079233 0.02472105 0.107810065 -0.0032192464 0.15151757 -0.5025371 -0.2653742 0.07172623 0.30706984 -0.15706451 0.1186165 -0.032159626 0.28069887 -0.09224972 -0.15093027 0.03831031 -0.109670244 -0.33374032 0.015353455 -0.08940333 -0.105922066 0.17865737 -0.03777118 0.23498768 0.28570244 -0.036762476 -0.21807632 0.25315788 -0.14942871 0.120607205 0.27920082 0.010763156 -0.01938864 0.008617298 0.1064057 0.19501166 0.57795393 0.02182601 -0.054511823 -0.06869808 0.0265676 0.39705324 0.09361415 0.1057322 -0.06329615 0.16383068 -0.21787225 -0.20352282 -0.07980768 0.09281729 0.017021803 0.2021702 0.05522893 0.078062065 0.2244049 0.12967336 0.013235536 -0.19660883 0.15649688 0.30124065 -0.14438966 0.043363698 -0.24886154 0.1637522 0.0034074574 -0.1565778 -0.18580109 0.1615863 -0.20983034 -0.15687326 -0.0326278 0.06748519 0.29066125 -0.070914105 -0.227579 -0.09592646 0.05234698 -0.28051284 -0.19996123 0.06075911 0.3239051 -0.09678492 0.11312373 -0.14061387 0.00740518 0.040829923 0.1972499 0.045187373 0.06311548 0.10194176 -0.40933308 -0.090343185 -0.16437967 0.24043433 0.07604915 0.5630981 0.05884512 -0.25737908 0.05342201 -0.1363378 0.09470966 0.24818675 -0.07972034 -0.2289731 0.09189637 -0.40505776 -0.40677333 0.2783317 0.013278828 -0.322505 -0.27458653 -0.023972139 0.13050967 0.17355776
